7 10
sixteen 0.3326517503983737 -1.2059043060631967 -0.3637482269969613 0.6250495163987319 -0.38730970214305355 0.44184540753353024 -0.5409318494583129 0.4962850373041957 1.5562893038438652 -0.1330745105487839
estimate -0.7585046448567014 0.670361792045765 1.31003873369098 -0.309802590031963 -1.334591120034987 0.24593435049062573 0.22556192819025928 -0.1436988732345692 -0.7086593374096499 -0.786113326072177
megabytes -0.058970819325015855 -1.4638606706454302 -1.1063180335688372 1.5004207894494088 0.17242259871332877 0.5716211696160425 0.479412784845739 1.3047834779139937 1.6101284811330618 0.097527427255958
dozen 0.7558297518571793 0.030117173298655264 -0.17006696044045533 -0.5990491722433063 0.2677102307563154 0.204550660842796 -0.4453321018616611 0.7688620186646012 -0.7086326869715265 -0.030295948286827523
minute 1.6725198417542644 -1.110749780905759 -0.6714528804811879 0.01766535755243448 0.8608066367248457 0.9017155710106521 -0.10537958504806105 -0.35679479294073924 0.595987195316653 1.7600043021994036
quarter -0.31737603360127586 0.0004271916379525176 -0.48570140321138555 0.4738912610185213 0.31291526749038845 0.44502542113390137 -0.22194088175470578 0.5071172255673326 -2.1249258260002106 0.41968330459462927
quarterminute -0.3026776786188933 -0.39933977420312144 -0.1658925893630831 -1.1303183133129229 -0.7885226237577119 -0.439863568485549 -0.16593405330933042 0.7327910826328421 -0.5582600542962548 -0.45529403892603204
